/*!
 * The following copyright notice may not be removed under any circumstances.
 * 
 * Copyright:
 * Created by Raph Levien using his own tools and FontForge. Copyright 2006 Raph
 * Levien. Released under the SIL Open Font License, http://scripts.sil.org/OFL.
 */
Cufon.registerFont({"w":500,"face":{"font-family":"Inconsolata","font-weight":500,"font-stretch":"normal","units-per-em":"1000","panose-1":"2 11 6 9 3 0 3 0 0 0","ascent":"820","descent":"-180","x-height":"12","cap-height":"1","bbox":"4 -802.997 498 177","underline-thickness":"50","underline-position":"-75","unicode-range":"U+0020-U+2122"},"glyphs":{" ":{},"!":{"d":"240,-107v32,0,58,27,58,59v0,32,-26,59,-58,59v-32,0,-60,-27,-60,-59v0,-32,28,-59,60,-59xm241,-668v59,0,55,77,47,146v-3,27,-4,44,-5,52r-18,276r-50,0r-15,-276v-1,-54,-19,-119,-3,-166v8,-22,23,-32,44,-32"},"\"":{"d":"352,-667v27,0,45,27,45,62v0,31,-40,144,-58,193r-55,-13v10,-37,35,-80,31,-123r-6,-63v-1,-32,17,-56,43,-56xm179,-667v27,0,45,27,45,62v0,32,-39,145,-57,193r-56,-13v11,-37,37,-80,32,-123r-7,-63v-1,-32,17,-56,43,-56"},"#":{"d":"173,-624r60,-3r-20,172r110,-1r20,-163r62,-2r-20,164r91,-1r-6,48r-91,1r-21,168r99,-2r-5,47r-99,2r-23,180r-60,4r22,-183r-111,1r-21,178r-59,3r21,-180r-97,2r4,-46r99,-2r20,-170r-109,1r3,-47r111,-2xm207,-407r-20,169r110,-2r21,-168"},"$":{"d":"79,-446v1,-80,76,-137,156,-145r0,-60r64,0v5,8,-8,13,-5,21r0,38v61,6,111,32,148,77r-43,54v-9,-3,-2,-17,-11,-21v-23,-27,-54,-44,-94,-51r0,193v30,10,52,18,66,24v67,29,100,74,100,135v0,90,-74,156,-166,165r0,63r-59,0r0,-61v-72,-5,-130,-31,-175,-80r43,-60v7,2,2,17,7,21v33,35,75,56,125,61r0,-220v-21,-7,-40,-14,-55,-21v-67,-32,-101,-76,-101,-133xm294,-74v54,-8,101,-49,101,-103v0,-54,-46,-81,-101,-96r0,199xm235,-534v-50,4,-88,34,-90,80v-3,42,45,78,90,93r0,-173"},"%":{"d":"391,-623r67,0r-348,623r-64,0xm28,-504v0,-69,48,-131,112,-131v64,0,112,64,112,133v0,68,-48,129,-111,129v-65,0,-113,-62,-113,-131xm189,-500v0,-50,-16,-78,-51,-82v-33,3,-49,31,-49,75v0,48,16,81,51,81v33,0,49,-31,49,-74xm371,10v-63,0,-112,-62,-112,-129v0,-68,49,-131,112,-131v63,0,112,63,112,130v0,68,-49,130,-112,130xm423,-117v0,-47,-18,-81,-53,-81v-35,0,-51,33,-51,79v0,44,18,78,52,78v34,0,52,-32,52,-76"},"&":{"d":"91,-498v0,-73,65,-131,138,-131v74,0,135,59,133,133v-2,75,-51,138,-107,166r112,157v21,-27,39,-52,46,-89v-1,-8,-3,-17,3,-22r65,45v-23,41,-48,79,-76,116r70,91r-59,44r-55,-88v-36,46,-95,85,-169,86v-87,2,-158,-69,-156,-156v2,-89,61,-162,126,-197v-47,-57,-71,-109,-71,-155xm228,-570v-37,0,-68,33,-68,73v0,32,20,73,61,124v40,-21,75,-65,76,-118v2,-43,-30,-79,-69,-79xm112,-153v-1,54,38,98,91,98v41,0,86,-26,121,-68r-127,-173v-44,27,-83,80,-85,143"},"'":{"d":"274,-667v27,0,45,27,45,62v0,32,-39,145,-58,193r-55,-13v11,-37,37,-80,32,-123r-7,-63v-1,-32,17,-56,43,-56"},"(":{"d":"393,173v-142,-72,-253,-231,-254,-431v-1,-193,110,-349,253,-408r30,61v-9,5,-19,-1,-28,4v-104,62,-185,183,-185,339v1,174,96,315,216,382"},")":{"d":"293,-248v0,-164,-98,-295,-215,-355r19,-62v146,64,267,219,267,414v0,198,-125,359,-273,425r-19,-60v120,-62,221,-195,221,-362"},"*":{"d":"213,-519r81,0v-12,54,-14,118,-21,177r159,-72r26,61r-171,52r126,151r-55,43r-108,-166r-112,167r-54,-44r130,-150r-173,-53r26,-65r162,76"},"+":{"d":"222,-523r63,0r0,171r171,0r0,61r-171,0r0,187r-63,0r0,-187r-177,0r0,-61r177,0r0,-171"},",":{"d":"236,-103v40,0,70,39,70,83v0,53,-36,116,-107,188r-34,-30v25,-24,65,-62,65,-104v0,-13,-8,-25,-23,-35v-19,-13,-28,-28,-28,-45v-1,-30,26,-58,57,-57"},"-":{"d":"71,-347r360,0r0,66r-360,0r0,-66"},".":{"d":"238,-104v32,0,59,27,59,58v0,31,-27,57,-59,57v-32,0,-59,-26,-59,-57v0,-31,27,-58,59,-58"},"\/":{"d":"64,13r313,-678r60,31r-314,676"},"0":{"d":"111,-538v58,-80,127,-117,212,-68v85,50,127,165,127,305v0,137,-42,247,-128,293v-85,46,-152,9,-210,-68v-81,-108,-81,-353,-1,-462xm349,-485v-20,-42,-50,-81,-99,-81v-34,0,-64,24,-93,68v-44,67,-53,201,-28,297xm152,-138v24,54,81,112,146,72v60,-37,88,-124,87,-227v0,-46,-4,-88,-13,-125"},"1":{"d":"297,-624r0,570r113,0r0,55r-294,0r0,-55r115,0r0,-483r-123,36r-17,-39r160,-84r46,0"},"2":{"d":"356,-404v38,-109,-79,-205,-177,-144v-23,14,-39,25,-46,50v-1,5,-2,9,-4,12r-51,-40v31,-56,95,-100,174,-102v118,-3,216,114,171,238v-37,102,-131,152,-195,228r-25,29v-18,22,-35,46,-49,72r261,0v8,1,18,-11,24,-9r0,70r-366,0r0,-44v55,-111,123,-178,211,-258v26,-23,58,-62,72,-102"},"3":{"d":"239,-625v92,0,172,70,171,158v0,65,-41,117,-92,135v61,21,107,82,107,161v1,103,-84,182,-192,182v-67,0,-121,-24,-164,-71r53,-63v7,6,7,21,13,28v19,20,57,41,97,43v70,2,126,-60,126,-128v0,-86,-84,-129,-178,-116r0,-56v75,0,117,-15,146,-57v48,-69,-9,-154,-90,-154v-42,0,-78,16,-107,48r-39,-43v41,-45,90,-67,149,-67"},"4":{"d":"313,-624r59,0r0,390r80,0r0,62r-80,0r0,172r-73,0r0,-173r-251,0r0,-51xm300,-513r-183,279r183,0r0,-279"},"5":{"d":"246,-347v-50,0,-92,27,-117,59r-44,-18r21,-317r316,0r0,63r-257,0r-10,179v32,-16,66,-24,102,-24v113,0,189,88,189,208v0,123,-81,208,-197,208v-83,-1,-149,-41,-185,-96r62,-46v6,1,5,18,7,23v18,27,67,58,115,58v76,-1,126,-64,126,-148v0,-86,-51,-149,-128,-149"},"6":{"d":"439,-198v0,144,-128,258,-259,187v-82,-45,-113,-133,-113,-273v0,-144,31,-248,107,-307v78,-59,184,-49,250,18r-49,53v-10,-10,-12,-24,-26,-31v-21,-11,-61,-23,-94,-13v-85,27,-116,121,-119,237v24,-41,72,-75,132,-75v100,0,171,92,171,204xm371,-195v0,-114,-89,-184,-177,-123v-22,15,-40,36,-54,61v-10,100,39,205,124,205v66,0,107,-64,107,-143"},"7":{"d":"432,-584v-81,188,-156,380,-218,584r-79,0v37,-112,77,-223,120,-333r90,-224r-266,0r0,-66r353,0r0,39"},"8":{"d":"90,-477v-2,-85,79,-154,168,-154v86,0,164,65,162,148v-1,69,-48,124,-99,150v63,28,119,90,120,172v2,97,-90,171,-191,171v-100,0,-192,-72,-190,-167v2,-82,62,-146,125,-174v-50,-25,-94,-78,-95,-146xm253,-53v63,0,119,-48,117,-109v-2,-73,-67,-121,-133,-141v-53,21,-104,71,-105,137v-1,63,57,113,121,113xm352,-479v1,-52,-46,-93,-99,-93v-68,0,-121,70,-85,134v21,39,59,62,99,80v42,-22,83,-65,85,-121"},"9":{"d":"68,-423v0,-109,77,-208,179,-206v85,2,144,60,169,135v28,83,27,279,-5,359v-32,80,-98,145,-194,145v-53,0,-99,-19,-138,-57r49,-53v8,4,10,20,16,24v37,29,103,30,146,2v60,-40,72,-110,78,-219v-26,38,-71,66,-129,67v-98,0,-171,-91,-171,-197xm136,-426v0,105,90,175,176,118v21,-14,38,-32,52,-55v12,-103,-33,-204,-119,-204v-67,0,-109,65,-109,141"},":":{"d":"238,-423v31,0,59,26,59,57v0,31,-28,58,-59,58v-31,0,-59,-27,-59,-58v0,-31,28,-57,59,-57xm238,-104v32,0,59,27,59,58v0,31,-27,57,-59,57v-32,0,-59,-26,-59,-57v0,-31,27,-58,59,-58"},";":{"d":"236,-103v40,0,70,39,70,83v0,53,-36,116,-107,188r-34,-30v25,-24,65,-62,65,-104v0,-13,-8,-25,-23,-35v-19,-13,-28,-28,-28,-45v-1,-30,26,-58,57,-57xm238,-423v31,0,59,26,59,57v0,31,-28,58,-59,58v-31,0,-59,-27,-59,-58v0,-31,28,-57,59,-57"},"<":{"d":"458,-496r0,-71r-423,223r0,48r426,249r0,-75r-350,-197"},"=":{"d":"45,-438r411,0r0,61r-411,0r0,-61xm45,-231r411,0r0,61r-411,0r0,-61"},">":{"d":"42,-496r0,-71r424,223r0,48r-426,249r0,-75r349,-197"},"?":{"d":"261,-102v32,0,59,27,59,58v0,31,-27,57,-59,57v-32,0,-59,-26,-59,-57v0,-31,27,-58,59,-58xm250,-600v-60,1,-111,42,-135,87r-51,-48v37,-58,108,-102,193,-105v120,-3,202,103,171,226v-13,51,-57,84,-93,112v-43,33,-44,72,-43,143r-66,0v0,-39,-1,-81,8,-109v22,-72,119,-104,121,-200v1,-58,-47,-108,-105,-106"},"@":{"d":"402,-444v3,-96,-106,-169,-199,-119v-74,40,-114,129,-114,246v0,128,49,218,137,255v62,26,131,19,182,-17r27,49v-67,44,-155,54,-235,22v-107,-43,-169,-152,-169,-306v0,-148,57,-255,156,-300v62,-28,131,-24,185,11v67,43,94,106,93,225r0,203r-60,0r0,-38v-26,31,-59,46,-100,46v-70,0,-132,-60,-130,-130v1,-64,43,-112,95,-132v28,-11,79,-16,132,-15xm316,-222v81,-4,93,-80,89,-172v-95,-4,-165,19,-168,94v-2,42,37,79,79,78"},"A":{"d":"15,1r220,-635r8,0r240,634r-72,0r-69,-182r-198,0r-60,183r-69,0xm326,-236r-88,-238r-80,238r168,0"},"B":{"d":"340,-334v62,20,117,83,116,161v-1,73,-46,130,-103,154v-67,28,-206,16,-305,19r0,-624v97,3,228,-11,294,18v51,21,91,70,91,135v0,65,-43,118,-93,137xm117,-564r0,199v61,-1,144,2,184,-13v49,-19,82,-87,45,-138v-27,-36,-62,-48,-130,-48r-99,0xm236,-61v93,2,147,-37,147,-119v0,-52,-31,-92,-70,-111v-41,-20,-131,-14,-196,-15r0,245r119,0"},"C":{"d":"460,-92v-40,72,-142,126,-248,92v-115,-37,-171,-150,-171,-308v0,-161,56,-274,175,-311v114,-36,218,32,253,114r-67,33v-8,-5,-2,-19,-7,-28v-22,-38,-66,-71,-120,-72v-46,0,-83,25,-117,70v-64,86,-63,296,1,381v35,46,74,71,122,71v57,-1,104,-36,127,-76"},"D":{"d":"54,-624v107,3,222,-12,290,34v75,51,116,153,117,277v1,135,-51,243,-139,289v-59,31,-174,24,-268,25r0,-625xm120,-564r0,510v72,0,136,3,180,-28v58,-42,90,-114,90,-221v0,-108,-28,-181,-78,-226v-43,-39,-113,-34,-192,-35"},"E":{"d":"59,-624r382,0r0,62r-316,0r0,205r261,0r0,64r-261,0r0,231r313,0r0,62r-379,0r0,-624"},"F":{"d":"78,-624r359,0r0,61r-288,0r0,197r232,0r0,60r-232,0r0,306r-71,0r0,-624"},"G":{"d":"157,-593v62,-42,157,-49,225,-8v32,19,58,44,76,76r-49,50v-4,-3,-8,-9,-13,-19v-18,-40,-63,-74,-119,-74v-64,2,-115,40,-140,89v-21,39,-32,93,-32,160v0,97,21,167,60,213v58,68,157,72,230,16r0,-148r-113,0r0,-60r178,0r0,243v-78,55,-154,84,-250,55v-116,-35,-174,-147,-174,-304v0,-136,41,-236,121,-289"},"H":{"d":"447,-623v4,8,-6,14,-6,22r0,602r-71,0r0,-298r-244,0r0,297r-72,0r0,-623r78,0v4,9,-5,16,-6,24r0,242r245,0r0,-266r76,0"},"I":{"d":"88,-623r309,0r0,59r-123,0r0,507r129,0r0,58r-322,0r0,-59r123,0r0,-506r-116,0r0,-59"},"J":{"d":"196,-51v73,0,96,-71,96,-157r0,-356r-120,0r0,-59r285,0r0,59r-96,0r0,355v6,131,-49,220,-166,220v-63,0,-114,-31,-146,-69r47,-57v4,3,3,15,6,18v16,21,56,46,94,46"},"K":{"d":"126,-624v2,7,-10,16,-10,26r0,262r261,-292v18,5,51,5,78,5r-236,269r252,355r-89,3r-216,-316r-50,54r0,258r-74,0r0,-624r84,0"},"L":{"d":"147,-623v2,11,-9,25,-9,34r0,530r301,0r0,60r-373,0r0,-624r81,0"},"M":{"d":"41,-623r55,0r154,305r157,-306r53,0r0,625r-66,0r0,-471r-135,251r-27,0r-125,-248r0,468r-66,0r0,-624"},"N":{"d":"454,-624v2,8,-7,19,-7,27r0,598r-55,0r-275,-491r0,490r-67,0r0,-623r68,0r262,462r0,-463r74,0"},"O":{"d":"433,-513v47,92,47,308,1,402v-40,81,-131,149,-240,111v-112,-39,-165,-154,-165,-312v0,-157,51,-272,165,-309v108,-35,199,31,239,108xm377,-466v-24,-67,-96,-123,-178,-86v-70,32,-102,121,-101,230v0,117,30,211,102,250v40,21,82,18,120,-7v58,-40,81,-117,81,-222v0,-69,-9,-124,-24,-165"},"P":{"d":"59,-623v102,4,239,-10,307,21v76,35,119,156,67,244v-34,57,-83,84,-179,83r-123,0r0,275r-72,0r0,-623xm384,-444v0,-75,-48,-113,-135,-113r-118,0r-1,221r126,0v83,2,128,-36,128,-108"},"Q":{"d":"379,-467v-25,-68,-98,-125,-181,-86v-70,33,-101,121,-101,230v0,118,30,213,102,253v44,24,97,16,131,-12v52,-43,74,-120,74,-219v0,-69,-10,-124,-25,-166xm401,145v-112,8,-179,-30,-175,-138v-58,-11,-96,-40,-132,-81v-81,-92,-85,-350,-12,-456v37,-54,88,-100,172,-100v86,0,147,53,180,119v25,49,37,117,37,202v1,171,-53,284,-184,316v3,47,21,78,74,75r81,-5r-2,68r-39,0"},"R":{"d":"424,-540v60,103,-5,243,-104,262r145,278r-79,0r-138,-275r-121,0r0,275r-71,0r0,-623v100,3,237,-12,303,21v28,14,50,35,65,62xm375,-444v0,-75,-48,-113,-135,-113r-113,0r0,221r121,0v83,2,127,-36,127,-108"},"S":{"d":"72,-467v-1,-92,91,-162,190,-160v75,2,137,34,173,78r-44,60v-7,-1,-5,-14,-8,-18v-23,-35,-69,-62,-126,-62v-61,0,-112,37,-113,91v0,37,21,68,64,93v9,5,39,19,90,41v51,22,88,42,109,62v46,43,62,107,37,174v-28,72,-94,119,-197,118v-81,0,-146,-27,-195,-80r41,-72v7,2,3,16,8,21v29,36,84,68,148,68v76,0,136,-47,137,-113v0,-35,-18,-64,-53,-86v-27,-18,-167,-71,-194,-93v-42,-35,-66,-73,-67,-122"},"T":{"d":"31,-624r432,0r0,63r-184,0r0,562r-71,0r0,-562r-177,0r0,-63"},"U":{"d":"253,-49v92,-5,134,-61,134,-168r0,-406r66,0r0,405v5,107,-31,168,-97,204v-62,33,-146,33,-208,0v-65,-36,-98,-96,-98,-201r0,-408r79,0v6,11,-10,19,-10,32r0,377v0,78,18,117,63,146v22,13,46,20,71,19"},"V":{"d":"25,-624r73,0r160,479r151,-478r69,0r-209,627r-32,0"},"W":{"d":"17,-623r65,0r67,421r100,-375r22,0r101,377r57,-423r59,0r-99,627r-27,0r-107,-411r-109,411r-29,0"},"X":{"d":"379,-624r70,0r-158,305r177,319r-79,0r-138,-247r-133,247r-77,0r170,-318r-167,-306r75,0r131,237"},"Y":{"d":"28,-624r79,0r154,303r138,-302r74,0r-177,377r0,246r-76,0r0,-246"},"Z":{"d":"432,-61v9,1,22,-8,31,-6r0,68r-413,0r0,-49r314,-512r-302,0r0,-63r385,0r-1,49r-308,513r294,0"},"[":{"d":"131,-670r286,0r0,60r-222,0r0,642r223,0r0,57r-287,0r0,-759"},"\\":{"d":"437,13r-59,29r-314,-676r59,-31"},"]":{"d":"370,-670r0,759r-287,0r0,-57r223,0r0,-642r-222,0r0,-60r286,0"},"^":{"d":"93,-367r153,-256r22,0r135,255r-53,25r-97,-175r-110,175"},"_":{"d":"35,19r431,0r0,61r-431,0r0,-61"},"`":{"d":"219,-461v-21,-22,-60,-130,-80,-185r52,-25v16,38,28,88,54,114r46,45v36,39,4,95,-43,74v-10,-4,-20,-12,-29,-23"},"a":{"d":"366,-269v5,-93,-27,-138,-109,-139v-55,0,-98,17,-131,51r-35,-46v56,-63,172,-85,258,-45v59,27,87,73,86,165r0,283r-68,0r0,-50v-50,41,-105,61,-164,61v-83,0,-154,-53,-154,-129v0,-109,112,-149,231,-150xm142,-174v-49,56,1,135,75,130v79,-5,136,-48,151,-114v3,-15,1,-38,1,-56r-96,0v-53,1,-107,12,-131,40"},"b":{"d":"336,-4v-78,37,-171,0,-205,-56r-25,60r-46,0r0,-665r84,0v4,8,-11,14,-11,22r0,256v31,-62,126,-105,208,-67v74,33,117,112,117,220v0,113,-46,194,-122,230xm383,-219v0,-105,-37,-187,-134,-187v-49,0,-89,29,-104,67v-16,24,-13,156,-9,186v7,62,47,99,111,99v92,0,136,-66,136,-165"},"c":{"d":"56,-228v0,-134,97,-240,230,-238v78,1,138,36,171,85r-51,59v-8,-7,-2,-26,-12,-32v-23,-28,-61,-51,-113,-51v-90,-1,-151,74,-151,169v0,98,64,181,157,181v48,0,88,-18,121,-55r42,49v-45,48,-101,72,-169,72v-129,0,-225,-107,-225,-239"},"d":{"d":"170,-456v80,-33,176,3,201,66r0,-275r77,0v1,7,-11,18,-10,28r1,595v0,17,2,31,5,42r-72,0v-6,-18,-4,-49,-4,-73v-31,63,-124,107,-207,69v-75,-34,-116,-116,-116,-228v0,-114,47,-192,125,-224xm115,-244v0,105,35,191,128,191v85,0,122,-68,122,-170v0,-93,-6,-132,-54,-165v-23,-15,-47,-22,-71,-22v-88,0,-125,71,-125,166"},"e":{"d":"49,-223v0,-143,82,-245,210,-245v135,0,194,103,184,250r-324,0v4,104,55,170,155,170v48,0,87,-17,118,-51r40,39v-39,47,-94,71,-164,70v-133,0,-219,-94,-219,-233xm121,-273r251,0v11,-86,-66,-165,-158,-133v-53,18,-85,67,-93,133"},"f":{"d":"340,-614v-80,2,-112,52,-109,149r0,35r150,0r0,57r-150,0r0,373r-69,0r0,-373r-99,0r0,-57r99,0v-2,-63,4,-127,25,-161v29,-46,86,-80,156,-80v59,0,105,21,140,63r-33,66v-9,1,-8,-15,-10,-20v-18,-28,-56,-53,-100,-52"},"g":{"d":"226,-415v-54,0,-100,47,-100,101v0,54,46,100,100,100v54,0,101,-46,101,-100v0,-54,-47,-101,-101,-101xm60,-310v-2,-87,83,-162,171,-162v43,0,79,15,108,44v37,-31,79,-44,127,-41r9,59v-41,-6,-75,1,-106,20v77,122,-55,279,-200,223v-22,18,-35,36,-32,52v10,63,135,26,209,38v77,12,134,78,98,157v-29,62,-104,92,-199,92v-73,0,-127,-11,-159,-32v-78,-54,-56,-128,27,-177v-25,-13,-37,-33,-37,-61v0,-29,17,-59,52,-88v-37,-23,-67,-69,-68,-124xm104,47v2,85,178,82,242,51v40,-20,59,-60,30,-94v-19,-23,-45,-21,-94,-22v-25,0,-39,-1,-44,-1v-32,-1,-58,-2,-77,-5v-38,21,-57,44,-57,71"},"h":{"d":"362,-275v5,-73,-24,-128,-86,-130v-45,-1,-90,38,-110,63v-15,20,-23,46,-23,79r0,263r-73,0r0,-665r83,0v2,9,-11,14,-10,24r0,265v30,-45,84,-91,152,-91v59,1,103,35,122,80v11,25,16,61,16,110r0,277r-71,0r0,-275"},"i":{"d":"106,-458r183,0r0,400r107,0r0,58r-296,0r0,-58r117,0r0,-341r-111,0r0,-59xm203,-604v0,-44,57,-69,88,-37v19,20,21,53,1,73v-31,31,-89,8,-89,-36"},"j":{"d":"192,112v71,-5,104,-47,104,-130r0,-380r-170,0r0,-60r242,0r0,426v1,99,-26,149,-86,182v-80,44,-184,27,-234,-40r47,-62v8,11,9,24,21,34v13,11,49,32,76,30xm281,-604v0,-28,25,-52,53,-52v28,0,51,24,51,52v0,28,-23,51,-51,51v-28,0,-53,-23,-53,-51"},"k":{"d":"148,-665v2,7,-9,18,-10,26r0,392r230,-212v19,5,52,5,79,5r-192,181r224,274r-93,3r-187,-233r-61,56r0,174r-72,0r0,-666r82,0"},"l":{"d":"85,-665r201,0r0,607r135,0r0,58r-342,0r0,-58r135,0r0,-549r-129,0r0,-58"},"m":{"d":"173,-413v-38,-3,-69,56,-69,108r0,305r-66,0r0,-457r66,0r0,45v18,-29,51,-55,93,-56v41,0,75,31,81,67v15,-36,54,-67,102,-67v70,0,90,62,90,144r0,325r-68,0r0,-325v0,-35,-2,-57,-6,-66v-7,-17,-19,-26,-36,-25v-38,0,-73,65,-73,113r0,302r-67,0r0,-318v2,-61,-5,-92,-47,-95"},"n":{"d":"361,-275v4,-72,-24,-128,-87,-130v-45,-1,-90,38,-110,63v-15,20,-23,46,-23,79r0,263r-73,0r0,-457r73,0r0,81v30,-45,84,-91,152,-91v59,1,103,35,122,80v11,25,17,61,17,110r0,277r-71,0r0,-275"},"o":{"d":"257,-467v120,1,203,107,203,241v0,133,-84,237,-205,238v-120,2,-215,-110,-215,-237v0,-129,95,-243,217,-242xm388,-223v0,-101,-51,-183,-136,-183v-82,0,-136,81,-136,175v0,96,55,181,139,181v81,0,133,-79,133,-173"},"p":{"d":"340,-3v-78,36,-172,0,-206,-57r0,227r-74,0r0,-624r73,0r0,70v33,-60,127,-103,211,-66v75,32,119,110,119,219v-1,113,-46,196,-123,231xm388,-219v0,-106,-38,-187,-137,-187v-50,0,-92,29,-106,67v-18,49,-18,174,1,224v15,37,55,63,104,63v94,0,138,-68,138,-167"},"q":{"d":"241,-469v63,-1,108,30,133,79r0,-67r68,0r0,624r-72,0r0,-240v-25,45,-76,83,-140,83v-113,0,-188,-116,-188,-243v0,-132,81,-234,199,-236xm114,-243v0,103,48,190,132,190v85,0,124,-69,122,-170v-2,-96,-7,-135,-58,-167v-100,-62,-196,25,-196,147"},"r":{"d":"171,-369v25,-57,89,-98,165,-99v49,0,89,17,122,50r-33,69v-4,-3,-15,-19,-17,-23v-18,-23,-43,-34,-76,-34v-53,0,-97,25,-128,77v-20,33,-33,60,-33,107r0,223r-72,0r0,-458r75,0"},"s":{"d":"96,-298v-43,-100,62,-169,166,-169v70,0,127,23,170,71r-42,63v-7,0,-4,-14,-7,-18v-24,-30,-71,-62,-127,-62v-46,0,-97,22,-97,62v0,23,16,40,46,55v26,13,142,44,168,60v44,27,67,60,67,104v0,85,-89,142,-190,142v-77,0,-141,-24,-193,-72r41,-72v8,2,2,17,8,20v28,33,81,63,143,64v56,1,117,-24,117,-72v0,-50,-55,-65,-112,-82v-31,-9,-49,-15,-56,-18v-42,-17,-84,-34,-102,-76"},"t":{"d":"298,9v-93,0,-131,-70,-131,-173v0,-78,3,-156,10,-234r-107,0r1,-59r109,0r8,-122r79,-13v3,12,-4,18,-6,27r-12,107r150,0r0,60r-150,0v-8,77,-14,197,-6,267v5,46,33,74,77,74v31,0,65,-14,102,-42r22,57v-47,34,-95,51,-146,51"},"u":{"d":"363,-70v-33,68,-147,109,-225,56v-54,-38,-77,-88,-76,-188r1,-255r72,0r0,255v0,75,12,114,53,140v60,38,135,-9,156,-53v11,-23,18,-52,18,-90r0,-252r72,0r0,416v0,17,2,30,6,41r-76,0v-3,-19,-2,-48,-1,-70"},"v":{"d":"126,-457v2,9,-6,17,-2,25r132,334v44,-105,117,-251,136,-359r65,0v-33,143,-124,321,-180,460r-56,0r-181,-460r86,0"},"w":{"d":"372,-91v26,-186,41,-229,42,-366r66,0v-20,153,-45,306,-75,458r-68,0r-84,-296r-80,296r-65,0r-92,-458r73,0v4,9,-7,25,-2,38r66,329r78,-324r44,0"},"x":{"d":"362,-457r73,0r-147,222r168,235r-82,0r-126,-178r-120,178r-81,0r161,-232r-158,-225r78,0r120,169"},"y":{"d":"60,71v7,7,7,18,15,25v8,7,29,20,46,19v63,-1,90,-63,110,-117r-185,-455r89,0v-1,11,-7,20,-2,30r134,336r87,-245v17,-48,29,-88,34,-121r75,0v-11,36,-26,80,-45,132r-143,377v-25,75,-72,122,-154,122v-39,0,-72,-13,-99,-39"},"z":{"d":"419,-61v9,1,22,-8,31,-6r0,68r-400,0r0,-49r283,-346r-262,0r0,-63r355,0r0,49r-278,347r271,0"},"{":{"d":"163,-116v0,-83,-26,-117,-110,-112r0,-56v80,5,113,-30,112,-107r-2,-72v-1,-128,76,-184,215,-174r30,0r0,57r-82,0v-65,1,-95,39,-93,106r2,70v0,80,-33,122,-87,148v56,19,88,71,85,155r-3,84v-1,92,45,126,140,120r37,0r0,56r-105,-1v-99,-7,-142,-68,-143,-174"},"|":{"d":"217,-652r67,0r0,803r-67,0r0,-803"},"}":{"d":"335,-391v0,77,31,113,113,107r0,56v-83,-5,-112,29,-110,112r3,100v2,134,-71,185,-212,175r-36,0r0,-56r97,-3v57,-9,83,-48,81,-117r-3,-84v0,-84,28,-136,84,-155v-53,-24,-87,-71,-87,-148r3,-70v0,-76,-36,-112,-117,-106r-59,0r0,-57r64,0v119,-2,181,59,182,174"},"~":{"d":"476,-416v-33,53,-109,119,-190,80v-42,-20,-57,-68,-112,-68v-30,0,-58,21,-83,62r-50,-33v31,-56,110,-114,191,-78v42,19,60,64,113,64v45,0,57,-32,85,-65"},"\u00a0":{},"\u00a1":{"d":"281,-567v-34,37,-101,9,-101,-41v0,-32,28,-60,60,-60v32,0,60,28,58,60v0,16,-6,30,-17,41xm279,-186v3,71,36,197,-41,197v-60,0,-55,-75,-47,-145v3,-27,4,-45,5,-52r18,-277r50,0"},"\u00a2":{"d":"212,-41v-94,-25,-164,-115,-164,-232v0,-134,93,-235,223,-239r14,-112r67,7v2,9,-9,20,-9,28r-10,82v52,11,91,36,118,77r-44,57v-8,-3,-2,-23,-8,-26v-19,-23,-43,-39,-74,-48r-46,350v51,0,95,-19,131,-56r36,49v-46,50,-101,73,-176,71r-15,112r-57,-7xm263,-454v-87,5,-144,75,-144,172v0,85,41,150,101,174"},"\u00a3":{"d":"112,-442v-3,-103,78,-182,176,-181v49,0,93,17,130,51r-44,55v-10,-9,-13,-22,-26,-30v-12,-7,-40,-20,-62,-19v-64,1,-110,52,-107,123v0,18,3,40,8,65r100,0r0,57r-86,0v24,92,18,162,-23,231v60,-16,142,40,192,39v28,0,53,-9,74,-28r26,52v-35,28,-69,42,-104,42v-40,0,-135,-45,-178,-45v-35,0,-76,13,-123,38r-26,-57v40,-18,54,-20,74,-51v42,-65,44,-131,20,-221r-66,0r0,-57r52,0v-5,-24,-7,-45,-7,-64"},"\u00a4":{"d":"68,-492r36,-35r56,56v52,-39,127,-40,180,-1r56,-55r36,35r-56,55v40,53,40,130,1,183r55,55r-36,35r-55,-55v-54,39,-129,38,-182,-1r-55,56r-36,-35r56,-57v-39,-52,-37,-128,1,-179xm351,-346v0,-54,-47,-100,-101,-100v-54,0,-100,46,-100,100v0,54,46,101,100,101v54,0,101,-47,101,-101"},"\u00a5":{"d":"36,-624r78,0r145,261r133,-260r74,0r-174,328r0,21r134,0r0,57r-134,0r0,63r134,0r0,56r-134,0r0,98r-68,0r0,-98r-140,0r0,-56r140,0r0,-63r-140,0r0,-57r140,0r0,-21"},"\u00a6":{"d":"217,-652r67,0r0,357r-67,0r0,-357xm284,151r-67,0r0,-347r67,0r0,347"},"\u00a7":{"d":"94,-530v-1,-80,78,-144,163,-142v71,2,130,40,156,89r-57,50v-5,-3,-7,-13,-7,-21v-11,-29,-47,-59,-92,-59v-48,0,-90,32,-90,77v1,50,48,80,103,96v75,21,151,70,148,135v-2,47,-36,82,-74,96v43,29,64,68,65,116v1,83,-81,149,-171,147v-76,-2,-138,-37,-173,-85r52,-61v11,7,6,21,17,30v19,26,57,50,104,50v53,0,99,-31,99,-79v0,-59,-52,-81,-117,-98v-75,-20,-141,-58,-141,-127v0,-50,40,-87,82,-101v-45,-27,-67,-65,-67,-113xm197,-399v-24,8,-45,32,-45,63v0,49,49,79,104,92v23,6,40,11,51,16v24,-12,36,-32,36,-60v1,-49,-49,-81,-103,-96v-21,-6,-35,-12,-43,-15"},"\u00a8":{"d":"163,-665v27,0,50,24,50,51v0,27,-23,50,-50,50v-27,0,-51,-23,-51,-50v0,-27,24,-51,51,-51xm341,-665v27,0,50,24,50,51v0,27,-23,50,-50,50v-27,0,-50,-23,-50,-50v0,-27,23,-51,50,-51"},"\u00a9":{"d":"115,-276v0,-81,67,-148,147,-148v62,0,114,41,125,93r-52,19v-6,-11,-2,-25,-11,-34v-8,-13,-35,-29,-60,-28v-52,1,-93,36,-93,92v0,55,41,109,94,107v34,-1,63,-19,75,-44r44,29v-24,37,-68,67,-123,68v-80,2,-146,-73,-146,-154xm498,-275v0,136,-110,256,-242,256v-132,0,-242,-120,-242,-255v0,-136,109,-256,242,-256v132,0,242,120,242,255xm258,-488v-109,0,-198,102,-198,214v0,112,89,212,197,212v108,0,198,-101,198,-213v0,-112,-88,-213,-197,-213"},"\u00aa":{"d":"325,-476v4,-61,-20,-93,-74,-93v-41,0,-73,15,-94,44r-34,-41v33,-37,77,-57,134,-57v85,0,132,43,132,138r0,218r-63,0r0,-33v-31,29,-66,43,-106,43v-82,0,-148,-82,-103,-157v33,-55,115,-65,208,-62xm181,-400v-34,36,-2,89,48,89v38,0,84,-26,95,-59v4,-12,4,-36,4,-54r-16,0v-47,0,-75,1,-86,3v-20,3,-35,10,-45,21xm76,-206r349,0r0,54r-349,0r0,-54"},"\u00ab":{"d":"249,-253r151,-147r39,41r-121,118r128,140r-40,40r-157,-169r0,-23xm67,-253r152,-147r39,41r-121,118r128,140r-40,40r-158,-169r0,-23"},"\u00ac":{"d":"91,-347r323,0r0,190r-64,0r0,-127r-259,0r0,-63"},"\u00ad":{"d":"71,-347r360,0r0,66r-360,0r0,-66"},"\u00ae":{"d":"498,-275v0,136,-110,256,-242,256v-132,0,-242,-120,-242,-255v0,-136,109,-256,242,-256v132,0,242,120,242,255xm258,-488v-109,0,-198,102,-198,214v0,112,89,212,197,212v108,0,198,-101,198,-213v0,-112,-88,-213,-197,-213xm370,-340v2,38,-26,69,-58,77r64,125r-47,7r-62,-125r-66,0r0,123r-46,0r0,-292r94,0v74,-1,117,23,121,85xm324,-340v-1,-49,-68,-45,-123,-44r0,88v55,0,124,7,123,-44"},"\u00af":{"d":"123,-621r254,0r0,56r-254,0r0,-56"},"\u00b0":{"d":"256,-639v73,0,134,63,134,135v0,72,-61,134,-134,134v-72,0,-135,-62,-135,-134v0,-72,63,-135,135,-135xm331,-506v0,-43,-32,-80,-74,-80v-41,0,-75,38,-75,80v0,42,33,81,74,81v41,0,75,-38,75,-81"},"\u00b1":{"d":"46,-80r411,0r0,63r-411,0r0,-63xm222,-575r63,0r0,171r171,0r0,61r-171,0r0,188r-63,0r0,-188r-177,0r0,-61r177,0r0,-171"},"\u00b2":{"d":"256,-586v-47,2,-85,25,-98,63r-47,-31v25,-47,80,-82,147,-83v70,-1,135,46,133,112v0,33,-15,65,-46,93v-25,23,-127,91,-151,125r182,0v8,1,18,-11,24,-9r0,63r-279,0r0,-44v42,-59,103,-107,159,-150v35,-27,52,-54,51,-78v-1,-37,-33,-63,-75,-61"},"\u00b3":{"d":"329,-526v0,-33,-36,-59,-74,-59v-37,0,-69,15,-94,46r-36,-37v35,-41,80,-62,133,-62v66,0,130,46,130,108v0,38,-25,69,-56,78v39,6,74,42,74,86v0,67,-80,115,-151,115v-57,0,-105,-22,-143,-65r47,-52v6,6,7,24,14,28v22,22,50,33,83,33v44,0,88,-26,88,-65v0,-51,-62,-60,-118,-53r0,-51v51,8,102,-7,103,-50"},"\u00b4":{"d":"292,-699r63,42r-101,135r-50,-30"},"\u00b5":{"d":"201,11v-54,0,-96,-31,-114,-71v0,75,0,151,-1,227r-62,0v-1,-68,20,-298,20,-369r0,-255r66,0r0,271v0,66,14,103,50,128v55,38,119,-6,135,-50v7,-20,13,-48,13,-84r0,-265r64,0r0,341v-6,55,31,87,68,56v13,-12,20,-21,27,-36r27,51v-24,37,-53,55,-88,55v-42,1,-78,-38,-82,-77v-19,43,-66,77,-123,78"},"\u00b6":{"d":"243,-322v-93,-3,-180,-80,-179,-174v1,-71,47,-123,102,-148v54,-25,180,-20,270,-21r0,733r-58,0r0,-676r-76,0r0,676r-59,0r0,-390"},"\u00b7":{"d":"238,-274v-32,0,-59,-26,-59,-57v0,-49,66,-76,101,-41v35,35,8,98,-42,98"},"\u00b8":{"d":"327,109v0,-28,-44,-24,-77,-24r11,-85r43,0r-5,47v48,-1,87,14,85,56v-2,47,-51,74,-108,74v-44,0,-84,-12,-119,-37r25,-42v29,23,62,35,99,36v27,0,46,-6,46,-25"},"\u00b9":{"d":"298,-633r0,326r93,0r0,54r-255,0r0,-54r100,0r0,-246r-96,24r-17,-31r132,-73r43,0"},"\u00ba":{"d":"96,-432v0,-101,64,-190,156,-190v87,0,145,78,145,178v0,107,-60,188,-151,188v-88,0,-150,-80,-150,-176xm247,-566v-58,0,-90,60,-90,129v0,68,33,123,90,123v56,0,90,-55,90,-123v0,-69,-32,-129,-90,-129xm76,-206r349,0r0,54r-349,0r0,-54"},"\u00bb":{"d":"446,-253r0,23r-158,169r-39,-40r127,-140r-121,-118r39,-41xm265,-253r0,23r-158,169r-40,-40r128,-140r-121,-118r39,-41"},"\u00bc":{"d":"76,16r313,-681r48,27r-314,680xm396,-242r31,0r0,197r50,0r0,37r-50,0r0,78r-46,0r0,-78r-145,0r0,-29xm382,-164r-94,119r94,0r0,-119xm146,-677r0,260r74,0r0,43r-204,0r0,-43r80,0r0,-197r-77,19r-13,-24r106,-58r34,0"},"\u00bd":{"d":"76,16r313,-681r48,27r-314,680xm379,-194v-35,0,-68,19,-79,51r-37,-25v21,-37,64,-66,117,-67v57,-1,107,38,107,90v0,27,-12,51,-37,74v-20,18,-103,74,-121,101r146,0v7,1,13,-12,19,-8r0,51r-224,0r0,-35v34,-46,83,-86,128,-120v28,-21,41,-44,41,-63v0,-29,-28,-49,-60,-49xm146,-677r0,260r74,0r0,43r-204,0r0,-43r80,0r0,-197r-77,19r-13,-24r106,-58r34,0"},"\u00be":{"d":"81,16r313,-681r48,27r-314,680xm185,-594v0,-27,-29,-48,-60,-48v-30,0,-55,13,-74,38r-29,-30v28,-33,63,-50,106,-50v53,0,104,37,104,86v0,31,-21,55,-45,63v31,4,59,34,59,68v1,55,-63,93,-121,93v-46,0,-84,-17,-114,-52r38,-42v4,5,6,18,11,23v37,41,137,32,137,-26v0,-41,-49,-47,-95,-43r0,-40v42,5,83,-7,83,-40xm396,-242r31,0r0,197r50,0r0,37r-50,0r0,78r-46,0r0,-78r-145,0r0,-29xm382,-164r-94,119r94,0r0,-119"},"\u00bf":{"d":"282,-568v-35,35,-101,9,-101,-40v0,-49,66,-76,101,-41v22,22,22,59,0,81xm252,-53v61,-2,109,-41,135,-86r51,48v-36,58,-107,102,-193,104v-120,3,-203,-103,-171,-225v13,-51,58,-83,92,-113v33,-29,43,-48,44,-101r0,-42r66,0v0,39,2,83,-8,110v-23,71,-121,103,-122,200v-1,57,48,107,106,105"},"\u00c0":{"d":"181,-791r153,89r-23,42r-169,-61xm15,1r220,-635r8,0r240,634r-72,0r-69,-182r-198,0r-60,183r-69,0xm326,-236r-88,-238r-80,238r168,0"},"\u00c1":{"d":"308,-791r40,70r-169,61r-24,-42xm15,1r220,-635r8,0r240,634r-72,0r-69,-182r-198,0r-60,183r-69,0xm326,-236r-88,-238r-80,238r168,0"},"\u00c2":{"d":"102,-692r131,-99r22,0r123,97r-33,38r-103,-71r-112,69xm15,1r220,-635r8,0r240,634r-72,0r-69,-182r-198,0r-60,183r-69,0xm326,-236r-88,-238r-80,238r168,0"},"\u00c3":{"d":"197,-745v-38,5,-42,29,-66,62r-45,-32v59,-91,121,-121,193,-44v33,35,61,42,85,11r23,-32r38,40v-32,37,-49,71,-99,71v-61,0,-75,-68,-129,-76xm15,1r220,-635r8,0r240,634r-72,0r-69,-182r-198,0r-60,183r-69,0xm326,-236r-88,-238r-80,238r168,0"},"\u00c4":{"d":"152,-789v27,0,50,24,50,51v0,27,-23,50,-50,50v-27,0,-51,-23,-51,-50v0,-27,24,-51,51,-51xm330,-789v27,0,50,24,50,51v0,27,-23,50,-50,50v-27,0,-50,-23,-50,-50v0,-27,23,-51,50,-51xm15,1r220,-635r8,0r240,634r-72,0r-69,-182r-198,0r-60,183r-69,0xm326,-236r-88,-238r-80,238r168,0"},"\u00c5":{"d":"241,-753v-23,-1,-42,22,-42,46v0,24,19,45,42,45v23,0,41,-21,41,-46v0,-24,-18,-45,-41,-45xm326,-236r-88,-238r-80,238r168,0xm331,-707v0,46,-39,86,-83,88r235,619r-72,0r-69,-182r-198,0r-60,183r-69,0r215,-620v-44,-4,-82,-42,-82,-88v0,-47,44,-87,92,-87v48,0,91,39,91,87"},"\u00c6":{"d":"200,-624r284,0r0,62r-173,0r1,205r146,0r0,64r-145,0r2,231r167,0r0,62r-230,0r0,-169r-130,0r-54,169r-64,0xm252,-562r-11,0r-105,335r116,0r0,-335"},"\u00c7":{"d":"327,109v0,-28,-44,-24,-77,-24r10,-75v-64,-6,-106,-37,-146,-76v-89,-88,-96,-356,-18,-463v39,-55,95,-99,182,-99v90,0,161,56,191,123r-67,33v-8,-5,-2,-19,-7,-28v-22,-38,-66,-71,-120,-72v-46,0,-83,25,-117,70v-64,86,-63,296,1,381v35,46,74,71,122,71v57,-1,104,-36,127,-76r52,34v-31,51,-87,92,-156,101r-5,38v48,-1,87,14,85,56v-2,47,-51,74,-108,74v-44,0,-84,-12,-119,-37r25,-42v29,23,62,35,99,36v27,0,46,-6,46,-25"},"\u00c8":{"d":"181,-791r153,89r-23,42r-169,-61xm59,-624r382,0r0,62r-316,0r0,205r261,0r0,64r-261,0r0,231r313,0r0,62r-379,0r0,-624"},"\u00c9":{"d":"325,-791r40,70r-169,61r-23,-42xm59,-624r382,0r0,62r-316,0r0,205r261,0r0,64r-261,0r0,231r313,0r0,62r-379,0r0,-624"},"\u00ca":{"d":"110,-692r132,-99r21,0r124,97r-33,38r-104,-71r-111,69xm59,-624r382,0r0,62r-316,0r0,205r261,0r0,64r-261,0r0,231r313,0r0,62r-379,0r0,-624"},"\u00cb":{"d":"158,-789v27,0,51,24,51,51v0,27,-24,50,-51,50v-27,0,-50,-23,-50,-50v0,-27,23,-51,50,-51xm336,-789v27,0,51,24,51,51v0,27,-24,50,-51,50v-27,0,-49,-23,-49,-50v0,-27,22,-51,49,-51xm59,-624r382,0r0,62r-316,0r0,205r261,0r0,64r-261,0r0,231r313,0r0,62r-379,0r0,-624"},"\u00cc":{"d":"181,-791r153,89r-23,42r-169,-61xm88,-623r309,0r0,59r-123,0r0,507r129,0r0,58r-322,0r0,-59r123,0r0,-506r-116,0r0,-59"},"\u00cd":{"d":"325,-791r40,70r-169,61r-23,-42xm88,-623r309,0r0,59r-123,0r0,507r129,0r0,58r-322,0r0,-59r123,0r0,-506r-116,0r0,-59"},"\u00ce":{"d":"101,-692r131,-99r22,0r123,97r-33,38r-103,-71r-112,69xm88,-623r309,0r0,59r-123,0r0,507r129,0r0,58r-322,0r0,-59r123,0r0,-506r-116,0r0,-59"},"\u00cf":{"d":"155,-789v27,0,50,24,50,51v0,27,-23,50,-50,50v-27,0,-51,-23,-51,-50v0,-27,24,-51,51,-51xm333,-789v27,0,50,24,50,51v0,27,-23,50,-50,50v-27,0,-50,-23,-50,-50v0,-27,23,-51,50,-51xm88,-623r309,0r0,59r-123,0r0,507r129,0r0,58r-322,0r0,-59r123,0r0,-506r-116,0r0,-59"},"\u00d0":{"d":"79,-623v105,3,216,-10,280,37v107,79,141,314,69,454v-44,86,-95,133,-222,133r-127,0r0,-302r-49,0r0,-58r49,0r0,-264xm144,-301r0,244v64,1,127,-1,163,-26v57,-41,92,-125,92,-223v-1,-130,-39,-233,-142,-256v-31,-7,-77,-2,-113,-2r0,205r104,0r0,58r-104,0"},"\u00d1":{"d":"201,-745v-38,5,-42,29,-66,62r-44,-32v59,-91,118,-118,193,-44v26,25,36,37,63,29v19,-11,31,-31,45,-50r37,40v-32,37,-48,71,-99,71v-61,0,-75,-68,-129,-76xm454,-624v2,8,-7,19,-7,27r0,598r-55,0r-275,-491r0,490r-67,0r0,-623r68,0r262,462r0,-463r74,0"},"\u00d2":{"d":"181,-791r153,89r-23,42r-169,-61xm433,-513v47,92,47,308,1,402v-40,81,-131,149,-240,111v-112,-39,-165,-154,-165,-312v0,-157,51,-272,165,-309v108,-35,199,31,239,108xm377,-466v-24,-67,-96,-123,-178,-86v-70,32,-102,121,-101,230v0,117,30,211,102,250v40,21,82,18,120,-7v58,-40,81,-117,81,-222v0,-69,-9,-124,-24,-165"},"\u00d3":{"d":"325,-791r40,70r-169,61r-23,-42xm433,-513v47,92,47,308,1,402v-40,81,-131,149,-240,111v-112,-39,-165,-154,-165,-312v0,-157,51,-272,165,-309v108,-35,199,31,239,108xm377,-466v-24,-67,-96,-123,-178,-86v-70,32,-102,121,-101,230v0,117,30,211,102,250v40,21,82,18,120,-7v58,-40,81,-117,81,-222v0,-69,-9,-124,-24,-165"},"\u00d4":{"d":"113,-692r131,-99r22,0r123,97r-33,38r-103,-71r-111,69xm433,-513v47,92,47,308,1,402v-40,81,-131,149,-240,111v-112,-39,-165,-154,-165,-312v0,-157,51,-272,165,-309v108,-35,199,31,239,108xm377,-466v-24,-67,-96,-123,-178,-86v-70,32,-102,121,-101,230v0,117,30,211,102,250v40,21,82,18,120,-7v58,-40,81,-117,81,-222v0,-69,-9,-124,-24,-165"},"\u00d5":{"d":"201,-745v-38,5,-42,29,-66,62r-44,-32v59,-91,118,-118,193,-44v26,25,36,37,63,29v19,-11,31,-31,45,-50r37,40v-32,37,-48,71,-99,71v-61,0,-75,-68,-129,-76xm433,-513v47,92,47,308,1,402v-40,81,-131,149,-240,111v-112,-39,-165,-154,-165,-312v0,-157,51,-272,165,-309v108,-35,199,31,239,108xm377,-466v-24,-67,-96,-123,-178,-86v-70,32,-102,121,-101,230v0,117,30,211,102,250v40,21,82,18,120,-7v58,-40,81,-117,81,-222v0,-69,-9,-124,-24,-165"},"\u00d6":{"d":"158,-789v27,0,51,24,51,51v0,27,-24,50,-51,50v-27,0,-50,-23,-50,-50v0,-27,23,-51,50,-51xm336,-789v27,0,51,24,51,51v0,27,-24,50,-51,50v-27,0,-49,-23,-49,-50v0,-27,22,-51,49,-51xm433,-513v47,92,47,308,1,402v-40,81,-131,149,-240,111v-112,-39,-165,-154,-165,-312v0,-157,51,-272,165,-309v108,-35,199,31,239,108xm377,-466v-24,-67,-96,-123,-178,-86v-70,32,-102,121,-101,230v0,117,30,211,102,250v40,21,82,18,120,-7v58,-40,81,-117,81,-222v0,-69,-9,-124,-24,-165"},"\u00d7":{"d":"382,-503r48,44r-130,134r127,134r-46,46r-127,-133r-125,129r-44,-44r126,-131r-126,-133r47,-46r124,131"},"\u00d8":{"d":"336,-528v-36,-36,-87,-48,-137,-24v-69,33,-102,121,-101,230v0,73,11,132,34,177xm413,-545v72,84,74,326,21,434v-33,68,-94,121,-180,121v-42,0,-81,-13,-116,-40r-50,93r-52,-27r59,-110v-82,-95,-88,-348,-14,-456v37,-54,88,-99,173,-100v43,0,81,13,115,40r46,-87r54,29xm374,-472r-203,380v42,39,99,47,149,13v58,-39,81,-117,81,-222v-1,-73,-8,-129,-27,-171"},"\u00d9":{"d":"181,-791r153,89r-23,42r-169,-61xm253,-49v92,-5,134,-61,134,-168r0,-406r66,0r0,405v5,107,-31,168,-97,204v-62,33,-146,33,-208,0v-65,-36,-98,-96,-98,-201r0,-408r79,0v6,11,-10,19,-10,32r0,377v0,78,18,117,63,146v22,13,46,20,71,19"},"\u00da":{"d":"325,-791r40,70r-169,61r-23,-42xm253,-49v92,-5,134,-61,134,-168r0,-406r66,0r0,405v5,107,-31,168,-97,204v-62,33,-146,33,-208,0v-65,-36,-98,-96,-98,-201r0,-408r79,0v6,11,-10,19,-10,32r0,377v0,78,18,117,63,146v22,13,46,20,71,19"},"\u00db":{"d":"113,-692r131,-99r22,0r123,97r-33,38r-103,-71r-111,69xm253,-49v92,-5,134,-61,134,-168r0,-406r66,0r0,405v5,107,-31,168,-97,204v-62,33,-146,33,-208,0v-65,-36,-98,-96,-98,-201r0,-408r79,0v6,11,-10,19,-10,32r0,377v0,78,18,117,63,146v22,13,46,20,71,19"},"\u00dc":{"d":"167,-789v27,0,50,24,50,51v0,27,-23,50,-50,50v-27,0,-51,-23,-51,-50v0,-27,24,-51,51,-51xm346,-789v27,0,49,24,49,51v0,27,-22,50,-49,50v-27,0,-51,-23,-51,-50v0,-27,24,-51,51,-51xm253,-49v92,-5,134,-61,134,-168r0,-406r66,0r0,405v5,107,-31,168,-97,204v-62,33,-146,33,-208,0v-65,-36,-98,-96,-98,-201r0,-408r79,0v6,11,-10,19,-10,32r0,377v0,78,18,117,63,146v22,13,46,20,71,19"},"\u00dd":{"d":"325,-791r40,70r-169,61r-23,-42xm28,-624r79,0r154,303r138,-302r74,0r-177,377r0,246r-76,0r0,-246"},"\u00de":{"d":"137,-623v5,9,-10,17,-7,28r0,89v81,1,186,-3,236,21v75,36,119,156,67,244v-34,57,-83,84,-179,83r-124,0r0,158r-71,0r0,-623r78,0xm384,-327v0,-75,-48,-113,-135,-113r-119,0r0,221r126,0v83,2,128,-36,128,-108"},"\u00df":{"d":"243,-611v-84,2,-120,87,-120,186r0,425r-68,0r0,-423v-1,-115,25,-174,88,-217v29,-20,61,-29,96,-29v96,0,183,83,181,176v-1,62,-34,112,-79,134v70,19,123,92,123,178v0,104,-81,193,-183,191v-37,0,-72,-10,-104,-31r35,-56v20,15,43,23,68,23v65,1,118,-59,118,-127v0,-54,-31,-100,-66,-122v-27,-17,-71,-21,-118,-20r0,-57v27,0,57,0,74,-8v35,-16,64,-58,64,-107v0,-62,-49,-117,-109,-116"},"\u00e0":{"d":"243,-699r88,147r-50,30r-101,-135xm366,-269v5,-93,-27,-138,-109,-139v-55,0,-98,17,-131,51r-35,-46v56,-63,172,-85,258,-45v59,27,87,73,86,165r0,283r-68,0r0,-50v-50,41,-105,61,-164,61v-83,0,-154,-53,-154,-129v0,-109,112,-149,231,-150xm142,-174v-49,56,1,135,75,130v79,-5,136,-48,151,-114v3,-15,1,-38,1,-56r-96,0v-53,1,-107,12,-131,40"},"\u00e1":{"d":"292,-699r63,42r-101,135r-50,-30xm366,-269v5,-93,-27,-138,-109,-139v-55,0,-98,17,-131,51r-35,-46v56,-63,172,-85,258,-45v59,27,87,73,86,165r0,283r-68,0r0,-50v-50,41,-105,61,-164,61v-83,0,-154,-53,-154,-129v0,-109,112,-149,231,-150xm142,-174v-49,56,1,135,75,130v79,-5,136,-48,151,-114v3,-15,1,-38,1,-56r-96,0v-53,1,-107,12,-131,40"},"\u00e2":{"d":"141,-545r111,-140r22,0r110,141r-47,35r-77,-103r-81,102xm366,-269v5,-93,-27,-138,-109,-139v-55,0,-98,17,-131,51r-35,-46v56,-63,172,-85,258,-45v59,27,87,73,86,165r0,283r-68,0r0,-50v-50,41,-105,61,-164,61v-83,0,-154,-53,-154,-129v0,-109,112,-149,231,-150xm142,-174v-49,56,1,135,75,130v79,-5,136,-48,151,-114v3,-15,1,-38,1,-56r-96,0v-53,1,-107,12,-131,40"},"\u00e3":{"d":"210,-619v-37,5,-41,29,-65,62r-45,-32v59,-91,121,-121,193,-44v33,35,61,42,85,11r23,-32r37,40v-32,37,-48,71,-98,71v-62,0,-75,-68,-130,-76xm366,-269v5,-93,-27,-138,-109,-139v-55,0,-98,17,-131,51r-35,-46v56,-63,172,-85,258,-45v59,27,87,73,86,165r0,283r-68,0r0,-50v-50,41,-105,61,-164,61v-83,0,-154,-53,-154,-129v0,-109,112,-149,231,-150xm142,-174v-49,56,1,135,75,130v79,-5,136,-48,151,-114v3,-15,1,-38,1,-56r-96,0v-53,1,-107,12,-131,40"},"\u00e4":{"d":"176,-665v27,0,50,24,50,51v0,27,-23,50,-50,50v-27,0,-51,-23,-51,-50v0,-27,24,-51,51,-51xm354,-665v27,0,50,24,50,51v0,27,-23,50,-50,50v-27,0,-50,-23,-50,-50v0,-27,23,-51,50,-51xm366,-269v5,-93,-27,-138,-109,-139v-55,0,-98,17,-131,51r-35,-46v56,-63,172,-85,258,-45v59,27,87,73,86,165r0,283r-68,0r0,-50v-50,41,-105,61,-164,61v-83,0,-154,-53,-154,-129v0,-109,112,-149,231,-150xm142,-174v-49,56,1,135,75,130v79,-5,136,-48,151,-114v3,-15,1,-38,1,-56r-96,0v-53,1,-107,12,-131,40"},"\u00e5":{"d":"256,-693v48,0,92,41,92,88v0,47,-44,88,-92,88v-49,0,-91,-41,-91,-88v0,-47,43,-88,91,-88xm257,-652v-23,-1,-41,22,-41,46v0,24,18,46,41,46v23,1,42,-22,42,-46v0,-24,-19,-46,-42,-46xm366,-269v5,-93,-27,-138,-109,-139v-55,0,-98,17,-131,51r-35,-46v56,-63,172,-85,258,-45v59,27,87,73,86,165r0,283r-68,0r0,-50v-50,41,-105,61,-164,61v-83,0,-154,-53,-154,-129v0,-109,112,-149,231,-150xm142,-174v-49,56,1,135,75,130v79,-5,136,-48,151,-114v3,-15,1,-38,1,-56r-96,0v-53,1,-107,12,-131,40"},"\u00e6":{"d":"142,11v-71,2,-136,-63,-132,-135v6,-107,89,-157,211,-155v4,-75,-15,-132,-79,-132v-30,0,-55,14,-76,43r-35,-44v29,-37,68,-55,116,-55v51,0,92,26,111,62v19,-34,58,-62,105,-62v98,0,132,87,127,199r0,38r-208,8v0,40,-1,88,11,113v16,34,48,62,93,61v31,0,55,-12,73,-36r35,42v-30,36,-68,54,-114,53v-56,0,-102,-31,-125,-69v-18,38,-60,69,-113,69xm149,-50v55,-2,78,-47,72,-112r0,-57v-85,-1,-143,18,-147,91v-2,41,34,79,75,78xm362,-411v-53,0,-86,61,-80,132r150,-5v3,-71,-10,-127,-70,-127"},"\u00e7":{"d":"56,-228v0,-134,97,-240,230,-238v78,1,138,36,171,85r-51,59v-8,-7,-2,-26,-12,-32v-23,-28,-61,-51,-113,-51v-90,-1,-151,74,-151,169v0,98,64,181,157,181v48,0,88,-18,121,-55r42,49v-39,42,-88,66,-146,71r-5,37v48,-1,87,14,85,56v-2,47,-51,74,-108,74v-44,0,-84,-12,-119,-37r25,-42v29,23,62,35,99,36v27,0,46,-6,46,-25v0,-28,-44,-24,-77,-24r10,-75v-116,-8,-204,-111,-204,-238"},"\u00e8":{"d":"243,-699r88,147r-50,30r-101,-135xm49,-223v0,-143,82,-245,210,-245v135,0,194,103,184,250r-324,0v4,104,55,170,155,170v48,0,87,-17,118,-51r40,39v-39,47,-94,71,-164,70v-133,0,-219,-94,-219,-233xm121,-273r251,0v11,-86,-66,-165,-158,-133v-53,18,-85,67,-93,133"},"\u00e9":{"d":"292,-699r63,42r-101,135r-50,-30xm49,-223v0,-143,82,-245,210,-245v135,0,194,103,184,250r-324,0v4,104,55,170,155,170v48,0,87,-17,118,-51r40,39v-39,47,-94,71,-164,70v-133,0,-219,-94,-219,-233xm121,-273r251,0v11,-86,-66,-165,-158,-133v-53,18,-85,67,-93,133"},"\u00ea":{"d":"134,-545r111,-140r22,0r110,141r-46,35r-78,-103r-81,102xm49,-223v0,-143,82,-245,210,-245v135,0,194,103,184,250r-324,0v4,104,55,170,155,170v48,0,87,-17,118,-51r40,39v-39,47,-94,71,-164,70v-133,0,-219,-94,-219,-233xm121,-273r251,0v11,-86,-66,-165,-158,-133v-53,18,-85,67,-93,133"},"\u00eb":{"d":"164,-665v27,0,51,24,51,51v0,27,-24,50,-51,50v-27,0,-50,-23,-50,-50v0,-27,23,-51,50,-51xm342,-665v27,0,51,24,51,51v0,27,-24,50,-51,50v-27,0,-49,-23,-49,-50v0,-27,22,-51,49,-51xm49,-223v0,-143,82,-245,210,-245v135,0,194,103,184,250r-324,0v4,104,55,170,155,170v48,0,87,-17,118,-51r40,39v-39,47,-94,71,-164,70v-133,0,-219,-94,-219,-233xm121,-273r251,0v11,-86,-66,-165,-158,-133v-53,18,-85,67,-93,133"},"\u00ec":{"d":"192,-699r88,147r-50,30r-101,-135xm106,-458r183,0r0,400r107,0r0,58r-296,0r0,-58r117,0r0,-341r-111,0r0,-59"},"\u00ed":{"d":"283,-699r63,42r-101,135r-50,-30xm106,-458r183,0r0,400r107,0r0,58r-296,0r0,-58r117,0r0,-341r-111,0r0,-59"},"\u00ee":{"d":"113,-545r111,-140r22,0r110,141r-46,35r-78,-103r-81,102xm106,-458r183,0r0,400r107,0r0,58r-296,0r0,-58r117,0r0,-341r-111,0r0,-59"},"\u00ef":{"d":"152,-665v27,0,51,24,51,51v0,27,-24,50,-51,50v-27,0,-50,-23,-50,-50v0,-27,23,-51,50,-51xm330,-665v27,0,50,24,50,51v0,27,-23,50,-50,50v-27,0,-50,-23,-50,-50v0,-27,23,-51,50,-51xm106,-458r183,0r0,400r107,0r0,58r-296,0r0,-58r117,0r0,-341r-111,0r0,-59"},"\u00f0":{"d":"116,-232v0,97,55,182,140,182v38,0,63,-16,86,-38v59,-52,60,-233,-2,-283v-24,-19,-48,-35,-85,-35v-84,0,-139,77,-139,174xm40,-223v0,-125,92,-245,209,-245v48,0,88,18,120,53v-20,-51,-49,-97,-86,-137r-128,36r-18,-48r104,-28v-31,-26,-65,-47,-102,-64r81,-16v31,18,60,39,87,62r108,-29r17,44r-85,25v75,86,113,192,113,317v0,119,-34,200,-109,241v-151,82,-311,-51,-311,-211"},"\u00f1":{"d":"196,-619v-38,5,-42,29,-66,62r-45,-32v59,-91,122,-121,194,-44v33,35,60,42,85,11r23,-32r37,40v-32,37,-48,71,-99,71v-61,0,-75,-68,-129,-76xm361,-275v4,-72,-24,-128,-87,-130v-45,-1,-90,38,-110,63v-15,20,-23,46,-23,79r0,263r-73,0r0,-457r73,0r0,81v30,-45,84,-91,152,-91v59,1,103,35,122,80v11,25,17,61,17,110r0,277r-71,0r0,-275"},"\u00f2":{"d":"243,-699r88,147r-50,30r-101,-135xm257,-467v120,1,203,107,203,241v0,133,-84,237,-205,238v-120,2,-215,-110,-215,-237v0,-129,95,-243,217,-242xm388,-223v0,-101,-51,-183,-136,-183v-82,0,-136,81,-136,175v0,96,55,181,139,181v81,0,133,-79,133,-173"},"\u00f3":{"d":"292,-699r63,42r-101,135r-50,-30xm257,-467v120,1,203,107,203,241v0,133,-84,237,-205,238v-120,2,-215,-110,-215,-237v0,-129,95,-243,217,-242xm388,-223v0,-101,-51,-183,-136,-183v-82,0,-136,81,-136,175v0,96,55,181,139,181v81,0,133,-79,133,-173"},"\u00f4":{"d":"134,-545r111,-140r22,0r110,141r-46,35r-78,-103r-81,102xm257,-467v120,1,203,107,203,241v0,133,-84,237,-205,238v-120,2,-215,-110,-215,-237v0,-129,95,-243,217,-242xm388,-223v0,-101,-51,-183,-136,-183v-82,0,-136,81,-136,175v0,96,55,181,139,181v81,0,133,-79,133,-173"},"\u00f5":{"d":"201,-619v-38,5,-42,29,-66,62r-44,-32v59,-91,118,-118,193,-44v26,25,36,37,63,29v19,-11,31,-31,45,-50r37,40v-32,37,-48,71,-99,71v-61,0,-75,-68,-129,-76xm257,-467v120,1,203,107,203,241v0,133,-84,237,-205,238v-120,2,-215,-110,-215,-237v0,-129,95,-243,217,-242xm388,-223v0,-101,-51,-183,-136,-183v-82,0,-136,81,-136,175v0,96,55,181,139,181v81,0,133,-79,133,-173"},"\u00f6":{"d":"163,-665v27,0,50,24,50,51v0,27,-23,50,-50,50v-27,0,-51,-23,-51,-50v0,-27,24,-51,51,-51xm341,-665v27,0,50,24,50,51v0,27,-23,50,-50,50v-27,0,-50,-23,-50,-50v0,-27,23,-51,50,-51xm257,-467v120,1,203,107,203,241v0,133,-84,237,-205,238v-120,2,-215,-110,-215,-237v0,-129,95,-243,217,-242xm388,-223v0,-101,-51,-183,-136,-183v-82,0,-136,81,-136,175v0,96,55,181,139,181v81,0,133,-79,133,-173"},"\u00f7":{"d":"71,-347r360,0r0,66r-360,0r0,-66xm256,-512v24,0,44,22,44,46v0,24,-20,44,-44,44v-24,0,-45,-20,-45,-44v0,-24,21,-46,45,-46xm256,-204v24,0,44,22,44,46v0,24,-20,44,-44,44v-24,0,-46,-20,-46,-44v0,-24,22,-46,46,-46"},"\u00f8":{"d":"304,-393v-105,-48,-188,50,-188,162v0,48,11,88,34,121xm40,-225v0,-155,140,-291,295,-225r37,-69r53,29r-39,73v49,45,74,108,74,191v0,167,-143,290,-298,216r-40,74r-52,-27r44,-81v-49,-46,-74,-106,-74,-181xm194,-67v104,56,194,-39,194,-156v0,-55,-12,-98,-37,-131"},"\u00f9":{"d":"243,-699r88,147r-50,30r-101,-135xm363,-70v-33,68,-147,109,-225,56v-54,-38,-77,-88,-76,-188r1,-255r72,0r0,255v0,75,12,114,53,140v60,38,135,-9,156,-53v11,-23,18,-52,18,-90r0,-252r72,0r0,416v0,17,2,30,6,41r-76,0v-3,-19,-2,-48,-1,-70"},"\u00fa":{"d":"292,-699r63,42r-101,135r-50,-30xm363,-70v-33,68,-147,109,-225,56v-54,-38,-77,-88,-76,-188r1,-255r72,0r0,255v0,75,12,114,53,140v60,38,135,-9,156,-53v11,-23,18,-52,18,-90r0,-252r72,0r0,416v0,17,2,30,6,41r-76,0v-3,-19,-2,-48,-1,-70"},"\u00fb":{"d":"134,-545r111,-140r22,0r110,141r-46,35r-78,-103r-81,102xm363,-70v-33,68,-147,109,-225,56v-54,-38,-77,-88,-76,-188r1,-255r72,0r0,255v0,75,12,114,53,140v60,38,135,-9,156,-53v11,-23,18,-52,18,-90r0,-252r72,0r0,416v0,17,2,30,6,41r-76,0v-3,-19,-2,-48,-1,-70"},"\u00fc":{"d":"163,-665v27,0,50,24,50,51v0,27,-23,50,-50,50v-27,0,-51,-23,-51,-50v0,-27,24,-51,51,-51xm341,-665v27,0,50,24,50,51v0,27,-23,50,-50,50v-27,0,-50,-23,-50,-50v0,-27,23,-51,50,-51xm363,-70v-33,68,-147,109,-225,56v-54,-38,-77,-88,-76,-188r1,-255r72,0r0,255v0,75,12,114,53,140v60,38,135,-9,156,-53v11,-23,18,-52,18,-90r0,-252r72,0r0,416v0,17,2,30,6,41r-76,0v-3,-19,-2,-48,-1,-70"},"\u00fd":{"d":"292,-699r63,42r-101,135r-50,-30xm60,71v7,7,7,18,15,25v8,7,29,20,46,19v63,-1,90,-63,110,-117r-185,-455r89,0v-1,11,-7,20,-2,30r134,336r87,-245v17,-48,29,-88,34,-121r75,0v-11,36,-26,80,-45,132r-143,377v-25,75,-72,122,-154,122v-39,0,-72,-13,-99,-39"},"\u00fe":{"d":"340,-3v-78,36,-172,0,-206,-57r0,227r-74,0r0,-832r80,0v0,10,-7,23,-8,33r0,245v34,-60,128,-103,212,-66v75,32,119,110,119,219v-1,113,-46,196,-123,231xm388,-219v0,-106,-38,-187,-137,-187v-50,0,-92,29,-106,67v-18,49,-18,174,1,224v15,37,55,63,104,63v94,0,138,-68,138,-167"},"\u00ff":{"d":"163,-665v27,0,50,24,50,51v0,27,-23,50,-50,50v-27,0,-51,-23,-51,-50v0,-27,24,-51,51,-51xm341,-665v27,0,50,24,50,51v0,27,-23,50,-50,50v-27,0,-50,-23,-50,-50v0,-27,23,-51,50,-51xm60,71v7,7,7,18,15,25v8,7,29,20,46,19v63,-1,90,-63,110,-117r-185,-455r89,0v-1,11,-7,20,-2,30r134,336r87,-245v17,-48,29,-88,34,-121r75,0v-11,36,-26,80,-45,132r-143,377v-25,75,-72,122,-154,122v-39,0,-72,-13,-99,-39"},"\u0152":{"d":"253,-595r0,-29r231,0r0,62r-169,0r0,205r143,0r0,64r-143,0r0,231r167,0r0,62r-230,0r0,-31v-40,49,-113,50,-162,7v-63,-56,-80,-157,-81,-288v0,-94,11,-167,34,-219v24,-57,63,-101,128,-101v33,0,60,13,82,37xm252,-485v-13,-38,-35,-89,-81,-89v-42,0,-64,39,-78,79v-28,81,-24,302,8,372v21,45,45,69,78,69v40,-1,73,-37,73,-75r0,-356"},"\u0153":{"d":"356,-466v104,0,142,92,134,213r1,32r-229,0v2,94,4,132,52,161v47,28,114,14,145,-25r35,43v-60,67,-171,72,-241,13v-46,43,-109,56,-165,21v-62,-39,-82,-114,-82,-228v0,-104,25,-169,84,-208v56,-36,129,-27,165,24v27,-31,60,-46,101,-46xm431,-278v3,-82,-19,-131,-83,-133v-63,-1,-88,61,-85,133r168,0xm209,-362v0,-44,-58,-56,-91,-29v-36,29,-52,77,-52,145v1,82,11,142,49,178v30,28,96,23,98,-21v-15,-73,-4,-194,-4,-273"},"\u0178":{"d":"158,-789v27,0,51,24,51,51v0,27,-24,50,-51,50v-27,0,-50,-23,-50,-50v0,-27,23,-51,50,-51xm336,-789v27,0,51,24,51,51v0,27,-24,50,-51,50v-27,0,-49,-23,-49,-50v0,-27,22,-51,49,-51xm28,-624r79,0r154,303r138,-302r74,0r-177,377r0,246r-76,0r0,-246"},"\u02c6":{"d":"134,-545r111,-140r22,0r110,141r-46,35r-78,-103r-81,102"},"\u02dc":{"d":"201,-619v-38,5,-42,29,-66,62r-44,-32v59,-91,118,-118,193,-44v26,25,36,37,63,29v19,-11,31,-31,45,-50r37,40v-32,37,-48,71,-99,71v-61,0,-75,-68,-129,-76"},"\u2018":{"d":"252,-367v-40,0,-70,-39,-70,-83v0,-53,35,-116,106,-188r35,31v-24,24,-65,62,-65,103v0,13,8,25,23,36v19,13,28,27,28,44v1,30,-26,58,-57,57"},"\u2019":{"d":"236,-638v40,0,70,39,70,83v0,53,-36,116,-107,188r-34,-30v25,-24,65,-62,65,-104v0,-13,-8,-25,-23,-35v-19,-13,-28,-28,-28,-45v-1,-30,26,-58,57,-57"},"\u201a":{"d":"236,-103v40,0,70,39,70,83v0,53,-36,116,-107,188r-34,-30v25,-24,65,-62,65,-104v0,-13,-8,-25,-23,-35v-19,-13,-28,-28,-28,-45v-1,-30,26,-58,57,-57"},"\u201c":{"d":"355,-367v-40,0,-69,-39,-69,-83v0,-53,35,-116,106,-188r34,31v-24,24,-64,62,-64,103v0,13,8,25,23,36v19,13,28,27,28,44v1,30,-27,58,-58,57xm148,-367v-40,0,-69,-39,-69,-83v0,-53,35,-116,106,-188r34,31v-24,24,-64,62,-64,103v0,13,8,25,23,36v19,13,28,27,28,44v1,30,-27,58,-58,57"},"\u201d":{"d":"133,-638v40,1,69,39,69,83v0,53,-35,116,-106,188r-35,-30v24,-24,62,-62,65,-104v0,-13,-8,-25,-23,-35v-19,-13,-28,-28,-28,-45v-1,-31,26,-58,58,-57xm340,-638v40,1,69,39,69,83v0,53,-35,116,-106,188r-35,-30v24,-24,62,-62,65,-104v0,-13,-8,-25,-23,-35v-19,-13,-28,-28,-28,-45v-1,-31,26,-58,58,-57"},"\u201e":{"d":"340,-103v40,1,69,39,69,83v0,53,-35,116,-106,188r-35,-30v24,-24,62,-62,65,-104v0,-13,-8,-25,-23,-35v-19,-13,-28,-28,-28,-45v-1,-31,26,-58,58,-57xm133,-103v40,1,69,39,69,83v0,53,-35,116,-106,188r-35,-30v24,-24,62,-62,65,-104v0,-13,-8,-25,-23,-35v-19,-13,-28,-28,-28,-45v-1,-31,26,-58,58,-57"},"\u2022":{"d":"256,-380v45,0,85,39,85,84v0,45,-40,83,-85,83v-45,0,-85,-38,-85,-83v0,-45,40,-84,85,-84"},"\u2026":{"d":"412,-104v32,0,58,27,58,58v0,31,-26,57,-58,57v-32,0,-60,-26,-60,-57v0,-31,28,-58,60,-58xm66,-104v32,0,59,26,59,58v0,32,-27,57,-59,57v-32,0,-59,-25,-59,-57v0,-32,27,-58,59,-58xm238,-104v32,0,59,27,59,58v0,31,-27,57,-59,57v-32,0,-59,-26,-59,-57v0,-31,27,-58,59,-58"},"\u2039":{"d":"145,-253r152,-147r39,41r-121,118r128,140r-40,40r-158,-169r0,-23"},"\u203a":{"d":"343,-253r0,23r-158,169r-40,-40r128,-140r-121,-118r39,-41"},"\u20ac":{"d":"97,-414v25,-122,100,-214,232,-214v55,0,100,18,135,54r-25,68v-5,-3,-5,-16,-8,-20v-17,-22,-63,-46,-106,-45v-91,2,-150,68,-166,157r247,0r-22,58r-234,0v-2,24,-2,53,-2,80r206,0r-23,58r-177,0v14,93,78,170,173,169v41,0,77,-14,107,-41r29,50v-62,58,-171,67,-249,24v-68,-38,-110,-107,-123,-202r-58,0r13,-58r40,0r2,-80r-55,0r13,-58r51,0"},"\u2122":{"d":"239,-635r0,40r-90,0r0,275r-45,0r0,-275r-86,0r0,-40r221,0xm303,-635r72,145r75,-145r33,0r0,315r-42,0r0,-215r-60,108r-16,-1r-55,-107r0,215r-42,0r0,-315r35,0"}}});
